booster[0]:
0:[aging_neighbors<2.5] yes=1,no=2,missing=1
	1:leaf=-0.587117
	2:leaf=-0.162791
booster[1]:
0:[aging_neighbors<1.5] yes=1,no=2,missing=1
	1:leaf=-0.45561
	2:leaf=-0.208464
booster[2]:
0:[aging_neighbors<4.5] yes=1,no=2,missing=1
	1:leaf=-0.38783
	2:leaf=0.192193
booster[3]:
0:[aging_neighbors<1.5] yes=1,no=2,missing=1
	1:leaf=-0.35532
	2:leaf=-0.0852301
booster[4]:
0:[aging_neighbors<1.5] yes=1,no=2,missing=1
	1:leaf=-0.329491
	2:leaf=-0.062438
booster[5]:
0:[GO:0006979<0.5] yes=1,no=2,missing=1
	1:leaf=-0.303588
	2:leaf=0.149468
booster[6]:
0:[aging_neighbors<1.5] yes=1,no=2,missing=1
	1:leaf=-0.293175
	2:leaf=0.0296391
booster[7]:
0:[GO:0051716<0.5] yes=1,no=2,missing=1
	1:leaf=-0.290248
	2:leaf=-0.0328876
booster[8]:
0:[aging_neighbors<0.5] yes=1,no=2,missing=1
	1:leaf=-0.274062
	2:leaf=0.0164441
booster[9]:
0:[GO:0009628<0.5] yes=1,no=2,missing=1
	1:leaf=-0.243243
	2:leaf=0.198189
booster[10]:
0:[GO:0031325<0.5] yes=1,no=2,missing=1
	1:leaf=-0.252689
	2:leaf=0.0781768
booster[11]:
0:[GO:0065008<0.5] yes=1,no=2,missing=1
	1:leaf=-0.232319
	2:leaf=0.0871573
booster[12]:
0:[aging_neighbors<0.5] yes=1,no=2,missing=1
	1:leaf=-0.213853
	2:leaf=0.116767
booster[13]:
0:[GO:0043066<0.5] yes=1,no=2,missing=1
	1:leaf=-0.16249
	2:leaf=0.312424
booster[14]:
0:[GO:0032502<0.5] yes=1,no=2,missing=1
	1:leaf=-0.201672
	2:leaf=0.10187
booster[15]:
0:[GO:0050896<0.5] yes=1,no=2,missing=1
	1:leaf=-0.203273
	2:leaf=0.0850552
booster[16]:
0:[GO:0005515<0.5] yes=1,no=2,missing=1
	1:leaf=-0.184931
	2:leaf=0.0863189
booster[17]:
0:[GO:0006979<0.5] yes=1,no=2,missing=1
	1:leaf=-0.0835142
	2:leaf=0.363174
booster[18]:
0:[GO:0065008<0.5] yes=1,no=2,missing=1
	1:leaf=-0.126657
	2:leaf=0.117314
booster[19]:
0:[GO:0051276<0.5] yes=1,no=2,missing=1
	1:leaf=-0.0558337
	2:leaf=0.459221
booster[20]:
0:[GO:0040008<0.5] yes=1,no=2,missing=1
	1:leaf=-0.0597001
	2:leaf=0.338107
booster[21]:
0:[GO:0044710<0.5] yes=1,no=2,missing=1
	1:leaf=-0.0816485
	2:leaf=0.180258
booster[22]:
0:[GO:0005654<0.5] yes=1,no=2,missing=1
	1:leaf=-0.0846072
	2:leaf=0.150198
booster[23]:
0:[GO:0005576<0.5] yes=1,no=2,missing=1
	1:leaf=-0.0491965
	2:leaf=0.267786
booster[24]:
0:[GO:0032502<0.5] yes=1,no=2,missing=1
	1:leaf=-0.104976
	2:leaf=0.0881047
booster[25]:
0:[GO:0003684<0.5] yes=1,no=2,missing=1
	1:leaf=-0.0236891
	2:leaf=0.547196
booster[26]:
0:[GO:0009987<0.5] yes=1,no=2,missing=1
	1:leaf=-0.268729
	2:leaf=0.0266113
booster[27]:
0:[GO:0007169<0.5] yes=1,no=2,missing=1
	1:leaf=-0.0331632
	2:leaf=0.246574
booster[28]:
0:[GO:0097159<0.5] yes=1,no=2,missing=1
	1:leaf=-0.080079
	2:leaf=0.0862392
booster[29]:
0:[GO:0043567<0.5] yes=1,no=2,missing=1
	1:leaf=-0.0110582
	2:leaf=0.845416
booster[30]:
0:[GO:0080135<0.5] yes=1,no=2,missing=1
	1:leaf=-0.0350832
	2:leaf=0.189916
booster[31]:
0:[GO:0031667<0.5] yes=1,no=2,missing=1
	1:leaf=-0.0245378
	2:leaf=0.259982
booster[32]:
0:[GO:0010332<0.5] yes=1,no=2,missing=1
	1:leaf=-0.0144389
	2:leaf=0.397251
booster[33]:
0:[GO:0009987<0.5] yes=1,no=2,missing=1
	1:leaf=-0.25093
	2:leaf=0.0195183
booster[34]:
0:[GO:0005576<0.5] yes=1,no=2,missing=1
	1:leaf=-0.0303264
	2:leaf=0.159205
booster[35]:
0:[GO:0044427<0.5] yes=1,no=2,missing=1
	1:leaf=-0.0280881
	2:leaf=0.168534
booster[36]:
0:[GO:0019838<0.5] yes=1,no=2,missing=1
	1:leaf=-0.0121816
	2:leaf=0.393019
booster[37]:
0:[GO:2000377<0.5] yes=1,no=2,missing=1
	1:leaf=-0.0166255
	2:leaf=0.241926
booster[38]:
0:[GO:0006974<0.5] yes=1,no=2,missing=1
	1:leaf=-0.027027
	2:leaf=0.139889
booster[39]:
0:[GO:0048511<0.5] yes=1,no=2,missing=1
	1:leaf=-0.0180571
	2:leaf=0.205709
booster[40]:
0:[GO:0044710<0.5] yes=1,no=2,missing=1
	1:leaf=-0.0398482
	2:leaf=0.086325
booster[41]:
0:[GO:0019899<0.5] yes=1,no=2,missing=1
	1:leaf=-0.0335382
	2:leaf=0.0944935
booster[42]:
0:[GO:0043567<0.5] yes=1,no=2,missing=1
	1:leaf=-0.00668129
	2:leaf=0.463856
booster[43]:
0:[GO:0009987<0.5] yes=1,no=2,missing=1
	1:leaf=-0.226258
	2:leaf=0.0126468
booster[44]:
0:[GO:0005739<0.5] yes=1,no=2,missing=1
	1:leaf=-0.0200399
	2:leaf=0.139521
booster[45]:
0:[GO:0003682<0.5] yes=1,no=2,missing=1
	1:leaf=-0.0170578
	2:leaf=0.153709
booster[46]:
0:[GO:0005576<0.5] yes=1,no=2,missing=1
	1:leaf=-0.0225002
	2:leaf=0.1068
booster[47]:
0:[GO:0003684<0.5] yes=1,no=2,missing=1
	1:leaf=-0.00965764
	2:leaf=0.257035
booster[48]:
0:[GO:0009894<0.5] yes=1,no=2,missing=1
	1:leaf=-0.0207171
	2:leaf=0.104235
booster[49]:
0:[GO:0007169<0.5] yes=1,no=2,missing=1
	1:leaf=-0.0168637
	2:leaf=0.116174
